{"Layer_0": {"weights": [[-0.5003413558006287, -0.2605890929698944, -0.36839836835861206, 0.12503725290298462], [-0.4487450420856476, -0.0457955002784729, -0.04633787274360657, -0.5068240761756897], [-0.2672346234321594, -0.24886295199394226, -0.5002922415733337, 0.35481345653533936], [-0.1919659972190857, 0.21249538660049438, -0.2542930543422699, -0.12763890624046326], [-0.36161765456199646, -0.5100146532058716, -0.48664671182632446, 0.18975204229354858], [-0.013435006141662598, -0.4106798470020294, -0.05644869804382324, 0.03185611963272095], [0.14807075262069702, 0.5065709948539734, 0.47390449047088623, 0.5037831664085388], [0.2501335144042969, 0.179038405418396, 0.05475640296936035, -0.24646329879760742], [-0.407294899225235, -0.061308056116104126, -0.025975942611694336, 0.4361029267311096], [-0.31456995010375977, 0.0344199538230896, -0.40916937589645386, 0.11157798767089844], [0.4454764127731323, 0.23485320806503296, -0.09510597586631775, -0.042990684509277344], [0.2289959192276001, 0.16444379091262817, -0.352231502532959, -0.3498486280441284], [-0.14450842142105103, 0.05470150709152222, 0.2755701541900635, 0.1597176194190979], [0.05588078498840332, 0.36581945419311523, -0.027700483798980713, -0.033612221479415894], [0.42721056938171387, -0.1773664653301239, -0.48490744829177856, 0.008450210094451904], [-0.37846192717552185, 0.30774492025375366, 0.19473731517791748, -0.25234347581863403], [0.374458372592926, 0.029432475566864014, -0.4337492883205414, 0.02424478530883789], [0.21083146333694458, -0.037988245487213135, -0.25393322110176086, 0.04225558042526245], [-0.2606907784938812, -0.32023850083351135, -0.42323577404022217, 0.4286996126174927]]}, "Layer_1": {"bias": [0.0, 0.0, 0.0, 0.0]}, "Layer_2": {"weights": [[0.08483028411865234, 0.5438145995140076, -0.4202427268028259, 0.22554713487625122], [-0.6415824890136719, -0.6183179616928101, 0.4534117579460144, 0.8058463931083679], [0.59043949842453, -0.5969604253768921, 0.7329452633857727, -0.23322558403015137], [-0.3291743993759155, -0.38405174016952515, -0.549325704574585, 0.29235321283340454]]}, "Layer_mu": {"bias": [0.0, 0.0, 0.0, 0.0]}, "Layer_sig": {"weights": [[-0.1386680006980896, -0.2098732590675354, 0.06399142742156982, -0.03346139192581177], [-0.054332435131073, -0.7624592185020447, 0.6694336533546448, 0.49923115968704224], [0.7132624983787537, 0.7268185019493103, -0.3496035933494568, 0.6155937314033508], [0.14479440450668335, -0.1130208969116211, -0.5626603364944458, -0.45512673258781433]]}}